SVM-light Version V6.02
0 # kernel type
3 # kernel parameter -d 
1 # kernel parameter -g 
1 # kernel parameter -s 
1 # kernel parameter -r 
empty# kernel parameter -u 
4 # highest feature index 
196 # number of training documents 
16 # number of support vectors plus 1 
32.034157 # threshold b, each following line is a SV (starting with alpha*y)
-10 1:5.98 2:12.7 3:40.599998 4:67.900002 #
8.2159798296961526 1:5.02 2:12.4 3:36.5 4:72.699997 #
-10 1:5.5700002 2:13.1 3:39.700001 4:71.199997 #
10 1:6.8899999 2:12.3 3:38.700001 4:56.099998 #
7.0050533485793949 1:5.7199998 2:13.9 3:42.400002 4:74.099998 #
-10 1:5.7399998 2:12.7 3:38.900002 4:67.699997 #
10 1:5.3299999 2:11.9 3:38.400002 4:72.099998 #
-10 1:5.71 2:12.4 3:38 4:66.599998 #
10 1:6.3200002 2:12.6 3:39.599998 4:62.700001 #
10 1:6.6799998 2:15.1 3:46.099998 4:69 #
-6.2881987367842385 1:6.4499998 2:13.7 3:42.200001 4:65.400002 #
-10 1:5.9899998 2:13.1 3:41.200001 4:68.800003 #
-10 1:6.1100001 2:13.4 3:40.599998 4:66.5 #
10 1:5.5599999 2:13 3:39.200001 4:70.5 #
1.0671655585085773 1:4.8400002 2:11.7 3:35.5 4:73.400002 #
